digraph Tree {
node [shape=box] ;
0 [label="X[16] <= 1.366\ngini = 0.518\nsamples = 21165\nvalue = [2570, 5027, 13568]"] ;
1 [label="X[16] <= 1.306\ngini = 0.478\nsamples = 19797\nvalue = [2265, 3974, 13558]"] ;
0 -> 1 [labeldistance=2.5, labelangle=45, headlabel="True"] ;
2 [label="gini = 0.472\nsamples = 19347\nvalue = [2203, 3789, 13355]"] ;
1 -> 2 ;
3 [label="gini = 0.609\nsamples = 450\nvalue = [62, 185, 203]"] ;
1 -> 3 ;
4 [label="X[16] <= 1.547\ngini = 0.358\nsamples = 1368\nvalue = [305, 1053, 10]"] ;
0 -> 4 [labeldistance=2.5, labelangle=-45, headlabel="False"] ;
5 [label="gini = 0.335\nsamples = 1183\nvalue = [238, 935, 10]"] ;
4 -> 5 ;
6 [label="gini = 0.462\nsamples = 185\nvalue = [67, 118, 0]"] ;
4 -> 6 ;
}